{
    "layers": [
        {
            "name": "input",
            "type": "input",
            "size": 8
        },
        {
            "name": "lstm_level_0",
            "type": "lstm",
            "size": 10,
            "bias": 1
        },
        {
            "name": "output",
            "type": "softmax",
            "size": 8,
            "bias": 1
        },
        {
            "name": "postoutput",
            "type": "multiclass_classification",
            "size": 8
        }
    ],
    "weights": {
        "lstm_level_0": {
            "input": [
                -0.0820041,
                0.575984,
                -1.77244,
                0.151208,
                -1.01557,
                -2.13367,
                0.417887,
                0.96339,
                0.108886,
                0.0465947,
                -0.33923,
                -0.184567,
                -0.0567379,
                0.100213,
                0.00190034,
                0.296631,
                -0.196697,
                -0.896131,
                0.714309,
                0.644715,
                0.242282,
                0.401041,
                -0.0450507,
                0.552006,
                -1.23673,
                0.253818,
                -3.84134,
                0.824604,
                -2.23775,
                -4.67055,
                1.39421,
                1.66878,
                -0.107031,
                -0.0703867,
                -0.190722,
                -0.0339711,
                0.10381,
                0.97174,
                0.154934,
                -0.0363559,
                0.658364,
                -0.361658,
                1.86813,
                2.5907,
                0.392806,
                5.16916,
                -0.561767,
                -0.720187,
                -0.133341,
                -0.170998,
                0.419536,
                0.0652621,
                0.355828,
                1.69371,
                -0.0117139,
                -0.248117,
                -0.102406,
                0.168931,
                -1.37408,
                -1.37962,
                -0.157607,
                -2.56516,
                -0.0942472,
                0.876554,
                -0.169869,
                0.0193068,
                0.0756184,
                0.0708247,
                -0.0698445,
                -0.718321,
                -0.196752,
                0.0134838,
                0.00778229,
                -0.00981215,
                -0.0637518,
                -0.0550247,
                -0.0741547,
                -1.4685,
                -0.203188,
                -0.548041,
                -0.0526634,
                -0.226707,
                0.290799,
                -0.0491491,
                0.0110229,
                0.271537,
                -0.201475,
                -0.147824,
                0.0881852,
                -0.442912,
                1.54417,
                1.48563,
                0.314187,
                -2.25515,
                -0.730308,
                -1.14934,
                0.0354216,
                0.275725,
                0.0528606,
                -0.0951063,
                0.0400519,
                -0.0493388,
                0.174527,
                0.405568,
                -1.92944,
                -1.64586,
                1.07582,
                7.87108,
                -1.24306,
                1.2812,
                1.25959,
                -0.922642,
                0.10505,
                -0.010897,
                0.157857,
                -0.171683,
                0.0451229,
                0.455106,
                0.0733564,
                0.273848,
                -0.43176,
                -0.282068,
                0.221667,
                -0.181502,
                0.205161,
                0.0562017,
                -0.164468,
                -0.337741,
                0.0780377,
                0.256336,
                -0.160743,
                -1.30383,
                1.69401,
                7.77226,
                3.21772,
                0.204229,
                3.24179,
                3.87626,
                -1.13936,
                -2.30443,
                0.563546,
                -4.18988,
                0.0326709,
                0.358849,
                0.0375716,
                0.108676,
                0.075244,
                -0.0528043,
                0.166704,
                0.0497132,
                -0.0199974,
                -0.160911,
                0.0483878,
                -0.0346655,
                0.073269,
                0.0660543,
                -0.101061,
                0.474498,
                0.0788065,
                0.0194873,
                0.0150649,
                0.16765,
                -0.846226,
                -0.0265877,
                -0.466667,
                -0.243611,
                0.252564,
                0.488044,
                0.136487,
                -0.482928,
                0.709168,
                1.42187,
                0.205331,
                -1.24555,
                -0.230375,
                -0.770621,
                -0.0514708,
                -0.199128,
                -0.229577,
                -0.0263808,
                0.0689777,
                -0.0995322,
                0.127967,
                0.271512,
                -0.342602,
                -0.569765,
                -0.124341,
                -0.382266,
                0.840326,
                0.3137,
                -1.65455,
                0.0620566,
                -0.149679,
                0.00430204,
                -0.00150318,
                -0.0100919,
                0.0978641,
                0.265244,
                -0.0507356,
                0.171161,
                -0.281403,
                -0.244988,
                -0.28232,
                -0.12613,
                0.12067,
                -0.00489806,
                -0.213647,
                0.10855,
                -0.058716,
                -0.331557,
                -0.0483177,
                0.176122,
                0.130657,
                2.71985,
                0.115557,
                0.0401253,
                1.11204,
                1.39311,
                -4.28613,
                -3.27225,
                0.136562,
                -6.55855,
                0.178772,
                2.54603,
                0.0129132,
                -0.00554723,
                -0.125017,
                0.0695238,
                -0.0611252,
                0.223435,
                -0.0673969,
                -0.172445,
                0.0440063,
                0.0436354,
                0.0288359,
                0.0576722,
                0.101714,
                0.533022,
                0.177257,
                0.00175927,
                -0.0775651,
                0.315724,
                -0.134099,
                -0.0523018,
                0.0152493,
                0.39686,
                0.0275864,
                -0.168264,
                0.588045,
                -0.22425,
                1.32108,
                2.07712,
                -0.0350225,
                -3.47946,
                -0.47762,
                -0.910993,
                0.0172775,
                -0.00539172,
                -0.290173,
                -0.274539,
                0.136172,
                -0.000305006,
                0.042486,
                0.726816,
                -0.212732,
                -0.248851,
                -0.118335,
                -0.179225,
                0.0939372,
                0.461427,
                -0.087858,
                0.166487,
                0.0602692,
                -0.0255581,
                -0.290075,
                -0.232227,
                0.105935,
                0.77992,
                0.203319,
                0.307471,
                -0.191772,
                -0.145064,
                -0.230918,
                -0.608714,
                -0.187292,
                0.536507,
                -0.0412727,
                0.307098,
                -0.308488,
                0.0291092,
                -0.551813,
                -0.533765,
                0.193762,
                1.05877,
                0.0910118,
                0.469933,
                0.0889051,
                -0.0391845,
                0.50664,
                0.35163,
                0.0966232,
                1.58269,
                0.122282,
                -0.0700729,
                -0.0053423,
                -0.0528973,
                -0.107432,
                -0.150811,
                -0.0553559,
                0.285714,
                0.0159438,
                -0.172778,
                -0.123401,
                -0.171323,
                -0.0762394,
                -0.015054,
                -0.071546,
                0.487946,
                0.110749,
                0.0367008
            ],
            "bias": [
                0.520676,
                -1.11574,
                1.48785,
                0.688207,
                -2.62694,
                1.42239,
                1.28254,
                1.10636,
                2.02648,
                -0.997613,
                1.25333,
                -2.93776,
                1.10507,
                -1.95846,
                1.00059,
                -1.73702,
                -2.71036,
                -1.77462,
                0.146112,
                0.942299,
                1.26993,
                -0.486311,
                0.565697,
                1.49663,
                0.359153,
                -0.0396433,
                2.08668,
                0.290614,
                1.07861,
                0.695312,
                2.14089,
                -0.968838,
                1.59469,
                1.79953,
                0.505834,
                0.665478,
                2.65553,
                2.05939,
                0.319445,
                1.94409
            ],
            "internal": [
                2.85415,
                0.46232,
                1.06711,
                1.18007,
                -0.304581,
                -0.196295,
                -0.166033,
                -0.176371,
                -0.542612,
                0.400476,
                0.415118,
                -0.182198,
                0.623648,
                -0.576953,
                0.337955,
                0.101806,
                -0.0462639,
                0.0460247,
                -0.482934,
                0.708278,
                0.317671,
                0.151896,
                0.611702,
                -0.167284,
                0.862435,
                0.349014,
                0.465224,
                -0.268628,
                -0.830686,
                0.410101,
                -0.964952,
                -1.53714,
                -1.17839,
                -2.10729,
                -0.768852,
                -0.148351,
                1.9268,
                -0.360362,
                1.06521,
                -1.39871,
                1.14124,
                0.594388,
                1.65882,
                -0.121169,
                1.73047,
                -1.24569,
                1.6721,
                0.764612,
                -1.73785,
                0.822411,
                -3.15622,
                0.233866,
                -1.67379,
                -5.30811,
                -0.849508,
                0.289836,
                -0.201401,
                -1.59982,
                1.05312,
                -0.716086,
                0.531384,
                -0.527991,
                -0.0530303,
                0.230367,
                -0.830536,
                0.339367,
                0.595261,
                0.19164,
                1.06468,
                -2.26726,
                0.0151923,
                -1.82838,
                -0.315256,
                3.54983,
                -1.47137,
                -0.206564,
                4.15285,
                -1.61103,
                1.24277,
                -0.836415,
                0.719005,
                -0.23009,
                0.144639,
                0.812317,
                -0.0936935,
                -0.0504335,
                -0.457525,
                -0.0863855,
                1.47018,
                -0.251723,
                0.124377,
                0.0739127,
                -0.209058,
                0.0809988,
                0.222464,
                -0.0647981,
                -0.187518,
                0.114327,
                -0.00391089,
                0.869733,
                0.423378,
                -0.216338,
                -0.460678,
                0.294585,
                -0.198855,
                0.0202445,
                0.347706,
                0.0230669,
                0.850174,
                -1.1611,
                1.51965,
                -0.0153826,
                1.93373,
                1.36171,
                2.73985,
                1.09492,
                -0.204512,
                -1.45392,
                -2.71958,
                2.80539,
                -0.0898179,
                -0.102204,
                0.051446,
                -0.0436913,
                -0.450072,
                0.177278,
                -0.0903816,
                0.0813242,
                0.301137,
                -0.513027,
                0.291221,
                -1.9102,
                2.24682,
                7.73861,
                2.21043,
                5.22567,
                1.76116,
                -1.83314,
                -2.5728,
                2.17547,
                -0.0862074,
                -0.208258,
                0.146821,
                -0.351667,
                -0.670726,
                0.252071,
                -0.333827,
                -0.0746091,
                0.0599941,
                0.0573977,
                1.73114,
                1.59226,
                1.42792,
                0.285782,
                1.26062,
                -1.07526,
                -0.0814508,
                1.11236,
                -1.60846,
                1.44622,
                -2.08941,
                0.402408,
                1.41151,
                5.41694,
                2.3887,
                4.30528,
                -0.668905,
                -3.33335,
                -3.74499,
                3.59679,
                0.289372,
                0.53479,
                0.686485,
                -0.956342,
                0.955503,
                1.62481,
                4.11258,
                3.66485,
                -1.01219,
                0.843284,
                0.198918,
                -0.23771,
                -0.0240512,
                0.0939292,
                -0.155072,
                -0.0190672,
                -0.266613,
                -0.29909,
                0.243184,
                -0.319852,
                0.0605511,
                -0.205722,
                0.356605,
                -0.0406523,
                0.136861,
                -0.0239338,
                0.086496,
                -0.155011,
                0.0765791,
                0.00257798,
                -0.110057,
                -0.118203,
                -0.436962,
                0.155483,
                -0.614688,
                0.239472,
                0.534692,
                0.0512788,
                1.10814,
                -1.30343,
                -0.461321,
                -0.478952,
                -0.120468,
                0.650313,
                0.417087,
                0.98918,
                0.936644,
                -0.934839,
                -0.533261,
                0.628384,
                0.150436,
                -0.181962,
                -0.247535,
                0.288969,
                -0.0950078,
                0.180023,
                -0.0696925,
                -0.00166371,
                0.470887,
                -0.699483,
                -8.20688,
                -0.729301,
                -1.98655,
                -1.45295,
                -1.55707,
                0.230328,
                0.994795,
                -1.60673,
                1.10436,
                -1.68584,
                -0.195611,
                -0.199509,
                0.135635,
                -0.370729,
                -0.373981,
                0.232788,
                -0.580565,
                -0.151397,
                0.138238,
                -0.0638165,
                0.0838489,
                -0.511362,
                0.452969,
                0.668622,
                -0.515785,
                3.45077,
                -0.0917564,
                -0.145018,
                -0.456959,
                0.055452,
                -4.49257,
                -1.86717,
                -1.43909,
                3.40686,
                0.495698,
                -0.0231761,
                2.53675,
                0.620333,
                1.23058,
                -1.61157,
                -1.9145,
                0.735148,
                -0.198698,
                -3.20691,
                -0.463374,
                -0.0605069,
                2.04405,
                2.861,
                0.197083,
                -0.547355,
                0.410222,
                -0.424384,
                0.0643845,
                0.194659,
                -0.395756,
                0.160389,
                -0.300787,
                -0.271078,
                0.62226,
                -0.675806,
                -0.158641,
                -0.00476679,
                0.0228246,
                0.071675,
                0.119929,
                -0.0153788,
                0.419133,
                -0.0902858,
                -0.0896792,
                -0.245135,
                0.797052,
                -0.094057,
                -0.592711,
                0.733073,
                -0.846504,
                -0.266852,
                0.963936,
                -0.0323149,
                1.83489,
                -2.38443,
                0.105226,
                -2.13764,
                0.83714,
                3.57969,
                0.842451,
                2.26603,
                1.70903,
                -2.35007,
                -1.13132,
                0.903738,
                0.230058,
                -0.223153,
                0.00215159,
                -0.156344,
                -0.672624,
                0.240045,
                0.0193026,
                0.0892567,
                0.486711,
                -0.600896,
                -0.743384,
                -0.333853,
                -0.751505,
                0.404144,
                -0.684628,
                0.0935699,
                0.993741,
                -0.245069,
                1.25851,
                -2.01162,
                -0.492801,
                -0.246666,
                0.376564,
                -0.543851,
                -0.681213,
                0.736004,
                -0.570968,
                -0.436216,
                -0.186868,
                0.273539,
                -0.784975,
                -0.0606567,
                -0.963039,
                0.15654,
                -0.710119,
                0.0143,
                -0.196366,
                -0.227226,
                0.903982,
                -0.878094,
                -0.212778,
                -0.479589,
                -0.0931684,
                -3.11985,
                -0.579592,
                0.494159,
                0.672848,
                2.34857,
                1.21701,
                -1.58552,
                -3.07826,
                -0.659811,
                -1.88216,
                -1.99269,
                -1.95083,
                1.70861,
                0.885037,
                -1.05039,
                2.1146,
                -2.37226,
                0.172679,
                -0.301576,
                0.120008,
                0.109387,
                -0.318806,
                0.431736,
                -0.348344,
                -0.221033,
                0.191527,
                -0.400792,
                0.277301,
                -0.279873,
                0.300837,
                0.156066,
                0.0358382,
                0.0973366,
                -0.342737,
                -0.157804,
                -0.0308319,
                0.166412,
                -0.110826,
                3.01595,
                -0.2305,
                8.31265,
                -0.951535,
                -0.776199,
                -1.0584,
                -2.17678,
                0.880679,
                -0.389897,
                -2.76148,
                0.280848,
                -0.352339,
                -0.564457,
                -1.12521,
                4.27521,
                5.79469,
                -0.0518463,
                2.17218,
                -1.35715,
                -2.78824,
                0.557084,
                -0.125426,
                0.408854,
                -1.75443,
                0.190248,
                6.16969,
                0.519781,
                0.602359,
                -14.6616
            ]
        },
        "output": {
            "input": [
                0.9365,
                -1.38949,
                2.19936,
                -5.4049,
                -2.62903,
                1.82016,
                -1.92695,
                -1.38086,
                2.34379,
                -2.33542,
                6.94144,
                2.07878,
                -4.82737,
                -11.8413,
                0.833016,
                -1.97629,
                0.207435,
                8.42296,
                2.49403,
                -0.120965,
                -2.10893,
                -4.1914,
                -1.23633,
                -8.59983,
                -1.84469,
                2.8247,
                -4.46013,
                -9.12921,
                2.72333,
                -0.790461,
                -1.38161,
                -2.11179,
                -0.622467,
                13.6907,
                -0.873059,
                -0.43229,
                -19.2988,
                -2.53369,
                0.691113,
                0.963176,
                -1.69927,
                1.5272,
                0.10751,
                7.92083,
                1.31686,
                -1.43155,
                -5.68569,
                1.93002,
                -0.379559,
                1.11972,
                -1.20016,
                4.58943,
                0.881198,
                0.839219,
                1.50888,
                2.27783,
                9.60607,
                -3.44524,
                -1.71057,
                -0.768443,
                -1.11522,
                -0.903716,
                3.01512,
                2.64013,
                2.11997,
                -2.75017,
                18.894,
                4.89294,
                -5.48265,
                1.87265,
                -0.348498,
                0.560372,
                0.13158,
                0.646979,
                -0.193463,
                -0.438919,
                2.84714,
                1.45003,
                -0.541781,
                0.268226
            ],
            "bias": [
                2.20937,
                3.21158,
                2.72764,
                1.92194,
                1.29563,
                -1.25042,
                -6.43927,
                -3.69026
            ],
            "internal": []
        }
    }
}